-1.4053803376267298	-1.5078731266626544	-0.4902048145840898	0.7516493040587037	0.9412845917905656	-0.44187366202901196	-0.5231765268159481	-0.7296165237671502
2.0079213716378956	-0.331565420903621	0.19030725080068556	0.01488433317606203	-1.6638976095141476	-0.6438131999149874	0.13825248025549022	0.1989666809373948
-0.7095492336961415	-0.6408028912473621	-0.5914750860964297	-0.4134213572180186	0.40413508825043654	0.31993943462778635	0.12404940846476019	0.14977419920473847
-1.8836333018164084	-0.5991082765385052	-0.15067927872328057	-0.02344108015385156	0.24217185556299003	1.2467726412366877	-1.9771817764842619	0.710975888125573
-1.4245025181897955	-1.1831651533386853	-0.1964253099618597	0.03549105246575243	-1.7614402576086183	-0.19876175962822135	-0.7549517345200186	-0.39976753013421984
3.954225299869088	0.35487351629644337	0.8930788402879046	-0.9923994860187484	-3.9744376085944233	-1.213866140285944	-0.7122814905421256	-0.6832975546924336
-0.9030328033354367	-0.017184453570264102	0.8457081391688941	-0.7675234546233309	-0.8059711755028698	-0.7961929492105562	-1.1780309046298778	0.14833426951555018
-0.40015517537605033	3.4411804039811407	0.7958192591535949	-1.1123092187877648	-3.5514174163453327	-0.5862102216924054	3.1105055341792553	-0.6211211326849271